<?xml version="1.0" encoding="UTF-8" standalone="yes"?>
<PMML xmlns="http://www.dmg.org/PMML-4_3" version="4.3">
    <Header>
        <Application name="JPMML-SparkML" version="1.1.7"/>
        <Timestamp>2017-05-03T21:06:20Z</Timestamp>
    </Header>
    <DataDictionary>
        <DataField name="quality" optype="categorical" dataType="string">
            <Value value="5"/>
            <Value value="6"/>
            <Value value="7"/>
            <Value value="4"/>
            <Value value="8"/>
            <Value value="3"/>
        </DataField>
        <DataField name="fixed acidity" optype="continuous" dataType="double"/>
        <DataField name="volatile acidity" optype="continuous" dataType="double"/>
        <DataField name="citric acid" optype="continuous" dataType="double"/>
        <DataField name="residual sugar" optype="continuous" dataType="double"/>
        <DataField name="chlorides" optype="continuous" dataType="double"/>
        <DataField name="free sulfur dioxide" optype="continuous" dataType="double"/>
        <DataField name="total sulfur dioxide" optype="continuous" dataType="double"/>
        <DataField name="density" optype="continuous" dataType="double"/>
        <DataField name="pH" optype="continuous" dataType="double"/>
        <DataField name="sulphates" optype="continuous" dataType="double"/>
        <DataField name="alcohol" optype="continuous" dataType="double"/>
    </DataDictionary>
    <MiningModel functionName="classification">
        <MiningSchema>
            <MiningField name="quality" usageType="target"/>
            <MiningField name="density"/>
            <MiningField name="citric acid"/>
            <MiningField name="fixed acidity"/>
            <MiningField name="total sulfur dioxide"/>
            <MiningField name="volatile acidity"/>
            <MiningField name="sulphates"/>
            <MiningField name="chlorides"/>
            <MiningField name="residual sugar"/>
            <MiningField name="free sulfur dioxide"/>
            <MiningField name="pH"/>
            <MiningField name="alcohol"/>
        </MiningSchema>
        <Output>
            <OutputField name="probability(5)" optype="continuous" dataType="double" feature="probability" value="5"/>
            <OutputField name="probability(6)" optype="continuous" dataType="double" feature="probability" value="6"/>
            <OutputField name="probability(7)" optype="continuous" dataType="double" feature="probability" value="7"/>
            <OutputField name="probability(4)" optype="continuous" dataType="double" feature="probability" value="4"/>
            <OutputField name="probability(8)" optype="continuous" dataType="double" feature="probability" value="8"/>
            <OutputField name="probability(3)" optype="continuous" dataType="double" feature="probability" value="3"/>
        </Output>
        <Segmentation multipleModelMethod="average">
            <Segment id="1">
                <True/>
                <TreeModel functionName="classification" splitCharacteristic="binarySplit">
                    <MiningSchema>
                        <MiningField name="fixed acidity"/>
                        <MiningField name="volatile acidity"/>
                        <MiningField name="citric acid"/>
                        <MiningField name="residual sugar"/>
                        <MiningField name="chlorides"/>
                        <MiningField name="free sulfur dioxide"/>
                        <MiningField name="total sulfur dioxide"/>
                        <MiningField name="density"/>
                        <MiningField name="pH"/>
                        <MiningField name="sulphates"/>
                        <MiningField name="alcohol"/>
                    </MiningSchema>
                    <Node score="5" recordCount="1595.0">
                        <True/>
                        <ScoreDistribution value="5" recordCount="674.0"/>
                        <ScoreDistribution value="6" recordCount="649.0"/>
                        <ScoreDistribution value="7" recordCount="193.0"/>
                        <ScoreDistribution value="4" recordCount="51.0"/>
                        <ScoreDistribution value="8" recordCount="14.0"/>
                        <ScoreDistribution value="3" recordCount="14.0"/>
                        <Node score="5" recordCount="973.0">
                            <SimplePredicate field="alcohol" operator="lessOrEqual" value="10.5"/>
                            <ScoreDistribution value="5" recordCount="561.0"/>
                            <ScoreDistribution value="6" recordCount="333.0"/>
                            <ScoreDistribution value="7" recordCount="38.0"/>
                            <ScoreDistribution value="4" recordCount="30.0"/>
                            <ScoreDistribution value="8" recordCount="1.0"/>
                            <ScoreDistribution value="3" recordCount="10.0"/>
                            <Node score="5" recordCount="818.0">
                                <SimplePredicate field="total sulfur dioxide" operator="lessOrEqual" value="87"/>
                                <ScoreDistribution value="5" recordCount="426.0"/>
                                <ScoreDistribution value="6" recordCount="313.0"/>
                                <ScoreDistribution value="7" recordCount="38.0"/>
                                <ScoreDistribution value="4" recordCount="30.0"/>
                                <ScoreDistribution value="8" recordCount="1.0"/>
                                <ScoreDistribution value="3" recordCount="10.0"/>
                                <Node score="5" recordCount="324.0">
                                    <SimplePredicate field="sulphates" operator="lessOrEqual" value="0.58"/>
                                    <ScoreDistribution value="5" recordCount="211.0"/>
                                    <ScoreDistribution value="6" recordCount="82.0"/>
                                    <ScoreDistribution value="7" recordCount="5.0"/>
                                    <ScoreDistribution value="4" recordCount="19.0"/>
                                    <ScoreDistribution value="3" recordCount="7.0"/>
                                    <Node score="5" recordCount="320.0">
                                        <SimplePredicate field="citric acid" operator="lessOrEqual" value="0.65"/>
                                        <ScoreDistribution value="5" recordCount="211.0"/>
                                        <ScoreDistribution value="6" recordCount="82.0"/>
                                        <ScoreDistribution value="7" recordCount="5.0"/>
                                        <ScoreDistribution value="4" recordCount="19.0"/>
                                        <ScoreDistribution value="3" recordCount="3.0"/>
                                        <Node score="5" recordCount="29.0">
                                            <SimplePredicate field="fixed acidity" operator="lessOrEqual" value="6.6"/>
                                            <ScoreDistribution value="5" recordCount="26.0"/>
                                            <ScoreDistribution value="4" recordCount="3.0"/>
                                        </Node>
                                        <Node score="5" recordCount="291.0">
                                            <SimplePredicate field="fixed acidity" operator="greaterThan" value="6.6"/>
                                            <ScoreDistribution value="5" recordCount="185.0"/>
                                            <ScoreDistribution value="6" recordCount="82.0"/>
                                            <ScoreDistribution value="7" recordCount="5.0"/>
                                            <ScoreDistribution value="4" recordCount="16.0"/>
                                            <ScoreDistribution value="3" recordCount="3.0"/>
                                        </Node>
                                    </Node>
                                    <Node score="3" recordCount="4.0">
                                        <SimplePredicate field="citric acid" operator="greaterThan" value="0.65"/>
                                        <ScoreDistribution value="3" recordCount="4.0"/>
                                    </Node>
                                </Node>
                                <Node score="6" recordCount="494.0">
                                    <SimplePredicate field="sulphates" operator="greaterThan" value="0.58"/>
                                    <ScoreDistribution value="5" recordCount="215.0"/>
                                    <ScoreDistribution value="6" recordCount="231.0"/>
                                    <ScoreDistribution value="7" recordCount="33.0"/>
                                    <ScoreDistribution value="4" recordCount="11.0"/>
                                    <ScoreDistribution value="8" recordCount="1.0"/>
                                    <ScoreDistribution value="3" recordCount="3.0"/>
                                    <Node score="6" recordCount="136.0">
                                        <SimplePredicate field="volatile acidity" operator="lessOrEqual" value="0.4"/>
                                        <ScoreDistribution value="5" recordCount="34.0"/>
                                        <ScoreDistribution value="6" recordCount="78.0"/>
                                        <ScoreDistribution value="7" recordCount="23.0"/>
                                        <ScoreDistribution value="8" recordCount="1.0"/>
                                        <Node score="6" recordCount="100.0">
                                            <SimplePredicate field="free sulfur dioxide" operator="lessOrEqual" value="16"/>
                                            <ScoreDistribution value="5" recordCount="27.0"/>
                                            <ScoreDistribution value="6" recordCount="50.0"/>
                                            <ScoreDistribution value="7" recordCount="22.0"/>
                                            <ScoreDistribution value="8" recordCount="1.0"/>
                                        </Node>
                                        <Node score="6" recordCount="36.0">
                                            <SimplePredicate field="free sulfur dioxide" operator="greaterThan" value="16"/>
                                            <ScoreDistribution value="5" recordCount="7.0"/>
                                            <ScoreDistribution value="6" recordCount="28.0"/>
                                            <ScoreDistribution value="7" recordCount="1.0"/>
                                        </Node>
                                    </Node>
                                    <Node score="5" recordCount="358.0">
                                        <SimplePredicate field="volatile acidity" operator="greaterThan" value="0.4"/>
                                        <ScoreDistribution value="5" recordCount="181.0"/>
                                        <ScoreDistribution value="6" recordCount="153.0"/>
                                        <ScoreDistribution value="7" recordCount="10.0"/>
                                        <ScoreDistribution value="4" recordCount="11.0"/>
                                        <ScoreDistribution value="3" recordCount="3.0"/>
                                        <Node score="5" recordCount="216.0">
                                            <SimplePredicate field="density" operator="lessOrEqual" value="0.9976"/>
                                            <ScoreDistribution value="5" recordCount="130.0"/>
                                            <ScoreDistribution value="6" recordCount="75.0"/>
                                            <ScoreDistribution value="7" recordCount="4.0"/>
                                            <ScoreDistribution value="4" recordCount="7.0"/>
                                        </Node>
                                        <Node score="6" recordCount="142.0">
                                            <SimplePredicate field="density" operator="greaterThan" value="0.9976"/>
                                            <ScoreDistribution value="5" recordCount="51.0"/>
                                            <ScoreDistribution value="6" recordCount="78.0"/>
                                            <ScoreDistribution value="7" recordCount="6.0"/>
                                            <ScoreDistribution value="4" recordCount="4.0"/>
                                            <ScoreDistribution value="3" recordCount="3.0"/>
                                        </Node>
                                    </Node>
                                </Node>
                            </Node>
                            <Node score="5" recordCount="155.0">
                                <SimplePredicate field="total sulfur dioxide" operator="greaterThan" value="87"/>
                                <ScoreDistribution value="5" recordCount="135.0"/>
                                <ScoreDistribution value="6" recordCount="20.0"/>
                                <Node score="6" recordCount="5.0">
                                    <SimplePredicate field="volatile acidity" operator="lessOrEqual" value="0.32"/>
                                    <ScoreDistribution value="5" recordCount="2.0"/>
                                    <ScoreDistribution value="6" recordCount="3.0"/>
                                    <Node score="5" recordCount="2.0">
                                        <SimplePredicate field="chlorides" operator="lessOrEqual" value="0.049"/>
                                        <ScoreDistribution value="5" recordCount="2.0"/>
                                    </Node>
                                    <Node score="6" recordCount="3.0">
                                        <SimplePredicate field="chlorides" operator="greaterThan" value="0.049"/>
                                        <ScoreDistribution value="6" recordCount="3.0"/>
                                    </Node>
                                </Node>
                                <Node score="5" recordCount="150.0">
                                    <SimplePredicate field="volatile acidity" operator="greaterThan" value="0.32"/>
                                    <ScoreDistribution value="5" recordCount="133.0"/>
                                    <ScoreDistribution value="6" recordCount="17.0"/>
                                    <Node score="5" recordCount="75.0">
                                        <SimplePredicate field="density" operator="lessOrEqual" value="0.99746"/>
                                        <ScoreDistribution value="5" recordCount="60.0"/>
                                        <ScoreDistribution value="6" recordCount="15.0"/>
                                        <Node score="6" recordCount="5.0">
                                            <SimplePredicate field="pH" operator="lessOrEqual" value="3.02"/>
                                            <ScoreDistribution value="6" recordCount="5.0"/>
                                        </Node>
                                        <Node score="5" recordCount="70.0">
                                            <SimplePredicate field="pH" operator="greaterThan" value="3.02"/>
                                            <ScoreDistribution value="5" recordCount="60.0"/>
                                            <ScoreDistribution value="6" recordCount="10.0"/>
                                        </Node>
                                    </Node>
                                    <Node score="5" recordCount="75.0">
                                        <SimplePredicate field="density" operator="greaterThan" value="0.99746"/>
                                        <ScoreDistribution value="5" recordCount="73.0"/>
                                        <ScoreDistribution value="6" recordCount="2.0"/>
                                        <Node score="5" recordCount="67.0">
                                            <SimplePredicate field="chlorides" operator="lessOrEqual" value="0.171"/>
                                            <ScoreDistribution value="5" recordCount="67.0"/>
                                        </Node>
                                        <Node score="5" recordCount="8.0">
                                            <SimplePredicate field="chlorides" operator="greaterThan" value="0.171"/>
                                            <ScoreDistribution value="5" recordCount="6.0"/>
                                            <ScoreDistribution value="6" recordCount="2.0"/>
                                        </Node>
                                    </Node>
                                </Node>
                            </Node>
                        </Node>
                        <Node score="6" recordCount="622.0">
                            <SimplePredicate field="alcohol" operator="greaterThan" value="10.5"/>
                            <ScoreDistribution value="5" recordCount="113.0"/>
                            <ScoreDistribution value="6" recordCount="316.0"/>
                            <ScoreDistribution value="7" recordCount="155.0"/>
                            <ScoreDistribution value="4" recordCount="21.0"/>
                            <ScoreDistribution value="8" recordCount="13.0"/>
                            <ScoreDistribution value="3" recordCount="4.0"/>
                            <Node score="6" recordCount="226.0">
                                <SimplePredicate field="sulphates" operator="lessOrEqual" value="0.61"/>
                                <ScoreDistribution value="5" recordCount="69.0"/>
                                <ScoreDistribution value="6" recordCount="111.0"/>
                                <ScoreDistribution value="7" recordCount="28.0"/>
                                <ScoreDistribution value="4" recordCount="14.0"/>
                                <ScoreDistribution value="3" recordCount="4.0"/>
                                <Node score="6" recordCount="217.0">
                                    <SimplePredicate field="fixed acidity" operator="lessOrEqual" value="12.3"/>
                                    <ScoreDistribution value="5" recordCount="60.0"/>
                                    <ScoreDistribution value="6" recordCount="111.0"/>
                                    <ScoreDistribution value="7" recordCount="28.0"/>
                                    <ScoreDistribution value="4" recordCount="14.0"/>
                                    <ScoreDistribution value="3" recordCount="4.0"/>
                                    <Node score="6" recordCount="189.0">
                                        <SimplePredicate field="residual sugar" operator="lessOrEqual" value="3.75"/>
                                        <ScoreDistribution value="5" recordCount="54.0"/>
                                        <ScoreDistribution value="6" recordCount="106.0"/>
                                        <ScoreDistribution value="7" recordCount="19.0"/>
                                        <ScoreDistribution value="4" recordCount="9.0"/>
                                        <ScoreDistribution value="3" recordCount="1.0"/>
                                        <Node score="6" recordCount="100.0">
                                            <SimplePredicate field="free sulfur dioxide" operator="lessOrEqual" value="10"/>
                                            <ScoreDistribution value="5" recordCount="37.0"/>
                                            <ScoreDistribution value="6" recordCount="43.0"/>
                                            <ScoreDistribution value="7" recordCount="14.0"/>
                                            <ScoreDistribution value="4" recordCount="5.0"/>
                                            <ScoreDistribution value="3" recordCount="1.0"/>
                                        </Node>
                                        <Node score="6" recordCount="89.0">
                                            <SimplePredicate field="free sulfur dioxide" operator="greaterThan" value="10"/>
                                            <ScoreDistribution value="5" recordCount="17.0"/>
                                            <ScoreDistribution value="6" recordCount="63.0"/>
                                            <ScoreDistribution value="7" recordCount="5.0"/>
                                            <ScoreDistribution value="4" recordCount="4.0"/>
                                        </Node>
                                    </Node>
                                    <Node score="7" recordCount="28.0">
                                        <SimplePredicate field="residual sugar" operator="greaterThan" value="3.75"/>
                                        <ScoreDistribution value="5" recordCount="6.0"/>
                                        <ScoreDistribution value="6" recordCount="5.0"/>
                                        <ScoreDistribution value="7" recordCount="9.0"/>
                                        <ScoreDistribution value="4" recordCount="5.0"/>
                                        <ScoreDistribution value="3" recordCount="3.0"/>
                                        <Node score="7" recordCount="16.0">
                                            <SimplePredicate field="density" operator="lessOrEqual" value="0.9962"/>
                                            <ScoreDistribution value="5" recordCount="3.0"/>
                                            <ScoreDistribution value="7" recordCount="8.0"/>
                                            <ScoreDistribution value="4" recordCount="5.0"/>
                                        </Node>
                                        <Node score="6" recordCount="12.0">
                                            <SimplePredicate field="density" operator="greaterThan" value="0.9962"/>
                                            <ScoreDistribution value="5" recordCount="3.0"/>
                                            <ScoreDistribution value="6" recordCount="5.0"/>
                                            <ScoreDistribution value="7" recordCount="1.0"/>
                                            <ScoreDistribution value="3" recordCount="3.0"/>
                                        </Node>
                                    </Node>
                                </Node>
                                <Node score="5" recordCount="9.0">
                                    <SimplePredicate field="fixed acidity" operator="greaterThan" value="12.3"/>
                                    <ScoreDistribution value="5" recordCount="9.0"/>
                                </Node>
                            </Node>
                            <Node score="6" recordCount="396.0">
                                <SimplePredicate field="sulphates" operator="greaterThan" value="0.61"/>
                                <ScoreDistribution value="5" recordCount="44.0"/>
                                <ScoreDistribution value="6" recordCount="205.0"/>
                                <ScoreDistribution value="7" recordCount="127.0"/>
                                <ScoreDistribution value="4" recordCount="7.0"/>
                                <ScoreDistribution value="8" recordCount="13.0"/>
                                <Node score="7" recordCount="150.0">
                                    <SimplePredicate field="volatile acidity" operator="lessOrEqual" value="0.37"/>
                                    <ScoreDistribution value="5" recordCount="21.0"/>
                                    <ScoreDistribution value="6" recordCount="53.0"/>
                                    <ScoreDistribution value="7" recordCount="70.0"/>
                                    <ScoreDistribution value="8" recordCount="6.0"/>
                                    <Node score="7" recordCount="121.0">
                                        <SimplePredicate field="total sulfur dioxide" operator="lessOrEqual" value="50"/>
                                        <ScoreDistribution value="5" recordCount="5.0"/>
                                        <ScoreDistribution value="6" recordCount="41.0"/>
                                        <ScoreDistribution value="7" recordCount="70.0"/>
                                        <ScoreDistribution value="8" recordCount="5.0"/>
                                        <Node score="7" recordCount="56.0">
                                            <SimplePredicate field="density" operator="lessOrEqual" value="0.99576"/>
                                            <ScoreDistribution value="5" recordCount="2.0"/>
                                            <ScoreDistribution value="6" recordCount="9.0"/>
                                            <ScoreDistribution value="7" recordCount="44.0"/>
                                            <ScoreDistribution value="8" recordCount="1.0"/>
                                        </Node>
                                        <Node score="6" recordCount="65.0">
                                            <SimplePredicate field="density" operator="greaterThan" value="0.99576"/>
                                            <ScoreDistribution value="5" recordCount="3.0"/>
                                            <ScoreDistribution value="6" recordCount="32.0"/>
                                            <ScoreDistribution value="7" recordCount="26.0"/>
                                            <ScoreDistribution value="8" recordCount="4.0"/>
                                        </Node>
                                    </Node>
                                    <Node score="5" recordCount="29.0">
                                        <SimplePredicate field="total sulfur dioxide" operator="greaterThan" value="50"/>
                                        <ScoreDistribution value="5" recordCount="16.0"/>
                                        <ScoreDistribution value="6" recordCount="12.0"/>
                                        <ScoreDistribution value="8" recordCount="1.0"/>
                                        <Node score="6" recordCount="11.0">
                                            <SimplePredicate field="chlorides" operator="lessOrEqual" value="0.066"/>
                                            <ScoreDistribution value="5" recordCount="2.0"/>
                                            <ScoreDistribution value="6" recordCount="9.0"/>
                                        </Node>
                                        <Node score="5" recordCount="18.0">
                                            <SimplePredicate field="chlorides" operator="greaterThan" value="0.066"/>
                                            <ScoreDistribution value="5" recordCount="14.0"/>
                                            <ScoreDistribution value="6" recordCount="3.0"/>
                                            <ScoreDistribution value="8" recordCount="1.0"/>
                                        </Node>
                                    </Node>
                                </Node>
                                <Node score="6" recordCount="246.0">
                                    <SimplePredicate field="volatile acidity" operator="greaterThan" value="0.37"/>
                                    <ScoreDistribution value="5" recordCount="23.0"/>
                                    <ScoreDistribution value="6" recordCount="152.0"/>
                                    <ScoreDistribution value="7" recordCount="57.0"/>
                                    <ScoreDistribution value="4" recordCount="7.0"/>
                                    <ScoreDistribution value="8" recordCount="7.0"/>
                                    <Node score="6" recordCount="159.0">
                                        <SimplePredicate field="alcohol" operator="lessOrEqual" value="11.5"/>
                                        <ScoreDistribution value="5" recordCount="21.0"/>
                                        <ScoreDistribution value="6" recordCount="114.0"/>
                                        <ScoreDistribution value="7" recordCount="16.0"/>
                                        <ScoreDistribution value="4" recordCount="7.0"/>
                                        <ScoreDistribution value="8" recordCount="1.0"/>
                                        <Node score="6" recordCount="120.0">
                                            <SimplePredicate field="chlorides" operator="lessOrEqual" value="0.09"/>
                                            <ScoreDistribution value="5" recordCount="13.0"/>
                                            <ScoreDistribution value="6" recordCount="96.0"/>
                                            <ScoreDistribution value="7" recordCount="9.0"/>
                                            <ScoreDistribution value="4" recordCount="1.0"/>
                                            <ScoreDistribution value="8" recordCount="1.0"/>
                                        </Node>
                                        <Node score="6" recordCount="39.0">
                                            <SimplePredicate field="chlorides" operator="greaterThan" value="0.09"/>
                                            <ScoreDistribution value="5" recordCount="8.0"/>
                                            <ScoreDistribution value="6" recordCount="18.0"/>
                                            <ScoreDistribution value="7" recordCount="7.0"/>
                                            <ScoreDistribution value="4" recordCount="6.0"/>
                                        </Node>
                                    </Node>
                                    <Node score="7" recordCount="87.0">
                                        <SimplePredicate field="alcohol" operator="greaterThan" value="11.5"/>
                                        <ScoreDistribution value="5" recordCount="2.0"/>
                                        <ScoreDistribution value="6" recordCount="38.0"/>
                                        <ScoreDistribution value="7" recordCount="41.0"/>
                                        <ScoreDistribution value="8" recordCount="6.0"/>
                                        <Node score="7" recordCount="80.0">
                                            <SimplePredicate field="density" operator="lessOrEqual" value="0.9992"/>
                                            <ScoreDistribution value="5" recordCount="2.0"/>
                                            <ScoreDistribution value="6" recordCount="31.0"/>
                                            <ScoreDistribution value="7" recordCount="41.0"/>
                                            <ScoreDistribution value="8" recordCount="6.0"/>
                                        </Node>
                                        <Node score="6" recordCount="7.0">
                                            <SimplePredicate field="density" operator="greaterThan" value="0.9992"/>
                                            <ScoreDistribution value="6" recordCount="7.0"/>
                                        </Node>
                                    </Node>
                                </Node>
                            </Node>
                        </Node>
                    </Node>
                </TreeModel>
            </Segment>
            <Segment id="2">
                <True/>
                <TreeModel functionName="classification" splitCharacteristic="binarySplit">
                    <MiningSchema>
                        <MiningField name="fixed acidity"/>
                        <MiningField name="volatile acidity"/>
                        <MiningField name="citric acid"/>
                        <MiningField name="residual sugar"/>
                        <MiningField name="chlorides"/>
                        <MiningField name="free sulfur dioxide"/>
                        <MiningField name="total sulfur dioxide"/>
                        <MiningField name="density"/>
                        <MiningField name="pH"/>
                        <MiningField name="sulphates"/>
                        <MiningField name="alcohol"/>
                    </MiningSchema>
                    <Node score="5" recordCount="1595.0">
                        <True/>
                        <ScoreDistribution value="5" recordCount="680.0"/>
                        <ScoreDistribution value="6" recordCount="632.0"/>
                        <ScoreDistribution value="7" recordCount="204.0"/>
                        <ScoreDistribution value="4" recordCount="50.0"/>
                        <ScoreDistribution value="8" recordCount="22.0"/>
                        <ScoreDistribution value="3" recordCount="7.0"/>
                        <Node score="6" recordCount="1443.0">
                            <SimplePredicate field="total sulfur dioxide" operator="lessOrEqual" value="95"/>
                            <ScoreDistribution value="5" recordCount="553.0"/>
                            <ScoreDistribution value="6" recordCount="615.0"/>
                            <ScoreDistribution value="7" recordCount="198.0"/>
                            <ScoreDistribution value="4" recordCount="48.0"/>
                            <ScoreDistribution value="8" recordCount="22.0"/>
                            <ScoreDistribution value="3" recordCount="7.0"/>
                            <Node score="6" recordCount="328.0">
                                <SimplePredicate field="density" operator="lessOrEqual" value="0.99545"/>
                                <ScoreDistribution value="5" recordCount="64.0"/>
                                <ScoreDistribution value="6" recordCount="153.0"/>
                                <ScoreDistribution value="7" recordCount="80.0"/>
                                <ScoreDistribution value="4" recordCount="13.0"/>
                                <ScoreDistribution value="8" recordCount="16.0"/>
                                <ScoreDistribution value="3" recordCount="2.0"/>
                                <Node score="6" recordCount="140.0">
                                    <SimplePredicate field="volatile acidity" operator="lessOrEqual" value="0.43"/>
                                    <ScoreDistribution value="5" recordCount="10.0"/>
                                    <ScoreDistribution value="6" recordCount="58.0"/>
                                    <ScoreDistribution value="7" recordCount="58.0"/>
                                    <ScoreDistribution value="4" recordCount="1.0"/>
                                    <ScoreDistribution value="8" recordCount="13.0"/>
                                    <Node score="6" recordCount="37.0">
                                        <SimplePredicate field="sulphates" operator="lessOrEqual" value="0.6"/>
                                        <ScoreDistribution value="5" recordCount="6.0"/>
                                        <ScoreDistribution value="6" recordCount="24.0"/>
                                        <ScoreDistribution value="7" recordCount="6.0"/>
                                        <ScoreDistribution value="4" recordCount="1.0"/>
                                        <Node score="5" recordCount="12.0">
                                            <SimplePredicate field="alcohol" operator="lessOrEqual" value="11.5"/>
                                            <ScoreDistribution value="5" recordCount="6.0"/>
                                            <ScoreDistribution value="6" recordCount="2.0"/>
                                            <ScoreDistribution value="7" recordCount="3.0"/>
                                            <ScoreDistribution value="4" recordCount="1.0"/>
                                        </Node>
                                        <Node score="6" recordCount="25.0">
                                            <SimplePredicate field="alcohol" operator="greaterThan" value="11.5"/>
                                            <ScoreDistribution value="6" recordCount="22.0"/>
                                            <ScoreDistribution value="7" recordCount="3.0"/>
                                        </Node>
                                    </Node>
                                    <Node score="7" recordCount="103.0">
                                        <SimplePredicate field="sulphates" operator="greaterThan" value="0.6"/>
                                        <ScoreDistribution value="5" recordCount="4.0"/>
                                        <ScoreDistribution value="6" recordCount="34.0"/>
                                        <ScoreDistribution value="7" recordCount="52.0"/>
                                        <ScoreDistribution value="8" recordCount="13.0"/>
                                        <Node score="6" recordCount="7.0">
                                            <SimplePredicate field="free sulfur dioxide" operator="lessOrEqual" value="3"/>
                                            <ScoreDistribution value="6" recordCount="7.0"/>
                                        </Node>
                                        <Node score="7" recordCount="96.0">
                                            <SimplePredicate field="free sulfur dioxide" operator="greaterThan" value="3"/>
                                            <ScoreDistribution value="5" recordCount="4.0"/>
                                            <ScoreDistribution value="6" recordCount="27.0"/>
                                            <ScoreDistribution value="7" recordCount="52.0"/>
                                            <ScoreDistribution value="8" recordCount="13.0"/>
                                        </Node>
                                    </Node>
                                </Node>
                                <Node score="6" recordCount="188.0">
                                    <SimplePredicate field="volatile acidity" operator="greaterThan" value="0.43"/>
                                    <ScoreDistribution value="5" recordCount="54.0"/>
                                    <ScoreDistribution value="6" recordCount="95.0"/>
                                    <ScoreDistribution value="7" recordCount="22.0"/>
                                    <ScoreDistribution value="4" recordCount="12.0"/>
                                    <ScoreDistribution value="8" recordCount="3.0"/>
                                    <ScoreDistribution value="3" recordCount="2.0"/>
                                    <Node score="5" recordCount="30.0">
                                        <SimplePredicate field="alcohol" operator="lessOrEqual" value="10"/>
                                        <ScoreDistribution value="5" recordCount="24.0"/>
                                        <ScoreDistribution value="6" recordCount="3.0"/>
                                        <ScoreDistribution value="4" recordCount="2.0"/>
                                        <ScoreDistribution value="3" recordCount="1.0"/>
                                        <Node score="5" recordCount="28.0">
                                            <SimplePredicate field="volatile acidity" operator="lessOrEqual" value="0.89"/>
                                            <ScoreDistribution value="5" recordCount="24.0"/>
                                            <ScoreDistribution value="6" recordCount="3.0"/>
                                            <ScoreDistribution value="3" recordCount="1.0"/>
                                        </Node>
                                        <Node score="4" recordCount="2.0">
                                            <SimplePredicate field="volatile acidity" operator="greaterThan" value="0.89"/>
                                            <ScoreDistribution value="4" recordCount="2.0"/>
                                        </Node>
                                    </Node>
                                    <Node score="6" recordCount="158.0">
                                        <SimplePredicate field="alcohol" operator="greaterThan" value="10"/>
                                        <ScoreDistribution value="5" recordCount="30.0"/>
                                        <ScoreDistribution value="6" recordCount="92.0"/>
                                        <ScoreDistribution value="7" recordCount="22.0"/>
                                        <ScoreDistribution value="4" recordCount="10.0"/>
                                        <ScoreDistribution value="8" recordCount="3.0"/>
                                        <ScoreDistribution value="3" recordCount="1.0"/>
                                        <Node score="5" recordCount="23.0">
                                            <SimplePredicate field="sulphates" operator="lessOrEqual" value="0.53"/>
                                            <ScoreDistribution value="5" recordCount="10.0"/>
                                            <ScoreDistribution value="6" recordCount="7.0"/>
                                            <ScoreDistribution value="4" recordCount="5.0"/>
                                            <ScoreDistribution value="3" recordCount="1.0"/>
                                        </Node>
                                        <Node score="6" recordCount="135.0">
                                            <SimplePredicate field="sulphates" operator="greaterThan" value="0.53"/>
                                            <ScoreDistribution value="5" recordCount="20.0"/>
                                            <ScoreDistribution value="6" recordCount="85.0"/>
                                            <ScoreDistribution value="7" recordCount="22.0"/>
                                            <ScoreDistribution value="4" recordCount="5.0"/>
                                            <ScoreDistribution value="8" recordCount="3.0"/>
                                        </Node>
                                    </Node>
                                </Node>
                            </Node>
                            <Node score="5" recordCount="1115.0">
                                <SimplePredicate field="density" operator="greaterThan" value="0.99545"/>
                                <ScoreDistribution value="5" recordCount="489.0"/>
                                <ScoreDistribution value="6" recordCount="462.0"/>
                                <ScoreDistribution value="7" recordCount="118.0"/>
                                <ScoreDistribution value="4" recordCount="35.0"/>
                                <ScoreDistribution value="8" recordCount="6.0"/>
                                <ScoreDistribution value="3" recordCount="5.0"/>
                                <Node score="5" recordCount="788.0">
                                    <SimplePredicate field="alcohol" operator="lessOrEqual" value="10.5"/>
                                    <ScoreDistribution value="5" recordCount="432.0"/>
                                    <ScoreDistribution value="6" recordCount="294.0"/>
                                    <ScoreDistribution value="7" recordCount="32.0"/>
                                    <ScoreDistribution value="4" recordCount="24.0"/>
                                    <ScoreDistribution value="8" recordCount="2.0"/>
                                    <ScoreDistribution value="3" recordCount="4.0"/>
                                    <Node score="5" recordCount="384.0">
                                        <SimplePredicate field="citric acid" operator="lessOrEqual" value="0.22"/>
                                        <ScoreDistribution value="5" recordCount="240.0"/>
                                        <ScoreDistribution value="6" recordCount="120.0"/>
                                        <ScoreDistribution value="7" recordCount="13.0"/>
                                        <ScoreDistribution value="4" recordCount="11.0"/>
                                        <Node score="5" recordCount="49.0">
                                            <SimplePredicate field="fixed acidity" operator="lessOrEqual" value="6.7"/>
                                            <ScoreDistribution value="5" recordCount="43.0"/>
                                            <ScoreDistribution value="6" recordCount="3.0"/>
                                            <ScoreDistribution value="7" recordCount="3.0"/>
                                        </Node>
                                        <Node score="5" recordCount="335.0">
                                            <SimplePredicate field="fixed acidity" operator="greaterThan" value="6.7"/>
                                            <ScoreDistribution value="5" recordCount="197.0"/>
                                            <ScoreDistribution value="6" recordCount="117.0"/>
                                            <ScoreDistribution value="7" recordCount="10.0"/>
                                            <ScoreDistribution value="4" recordCount="11.0"/>
                                        </Node>
                                    </Node>
                                    <Node score="5" recordCount="404.0">
                                        <SimplePredicate field="citric acid" operator="greaterThan" value="0.22"/>
                                        <ScoreDistribution value="5" recordCount="192.0"/>
                                        <ScoreDistribution value="6" recordCount="174.0"/>
                                        <ScoreDistribution value="7" recordCount="19.0"/>
                                        <ScoreDistribution value="4" recordCount="13.0"/>
                                        <ScoreDistribution value="8" recordCount="2.0"/>
                                        <ScoreDistribution value="3" recordCount="4.0"/>
                                        <Node score="6" recordCount="290.0">
                                            <SimplePredicate field="chlorides" operator="lessOrEqual" value="0.09"/>
                                            <ScoreDistribution value="5" recordCount="123.0"/>
                                            <ScoreDistribution value="6" recordCount="140.0"/>
                                            <ScoreDistribution value="7" recordCount="13.0"/>
                                            <ScoreDistribution value="4" recordCount="11.0"/>
                                            <ScoreDistribution value="8" recordCount="2.0"/>
                                            <ScoreDistribution value="3" recordCount="1.0"/>
                                        </Node>
                                        <Node score="5" recordCount="114.0">
                                            <SimplePredicate field="chlorides" operator="greaterThan" value="0.09"/>
                                            <ScoreDistribution value="5" recordCount="69.0"/>
                                            <ScoreDistribution value="6" recordCount="34.0"/>
                                            <ScoreDistribution value="7" recordCount="6.0"/>
                                            <ScoreDistribution value="4" recordCount="2.0"/>
                                            <ScoreDistribution value="3" recordCount="3.0"/>
                                        </Node>
                                    </Node>
                                </Node>
                                <Node score="6" recordCount="327.0">
                                    <SimplePredicate field="alcohol" operator="greaterThan" value="10.5"/>
                                    <ScoreDistribution value="5" recordCount="57.0"/>
                                    <ScoreDistribution value="6" recordCount="168.0"/>
                                    <ScoreDistribution value="7" recordCount="86.0"/>
                                    <ScoreDistribution value="4" recordCount="11.0"/>
                                    <ScoreDistribution value="8" recordCount="4.0"/>
                                    <ScoreDistribution value="3" recordCount="1.0"/>
                                    <Node score="7" recordCount="75.0">
                                        <SimplePredicate field="volatile acidity" operator="lessOrEqual" value="0.34"/>
                                        <ScoreDistribution value="5" recordCount="12.0"/>
                                        <ScoreDistribution value="6" recordCount="25.0"/>
                                        <ScoreDistribution value="7" recordCount="38.0"/>
                                        <Node score="6" recordCount="26.0">
                                            <SimplePredicate field="sulphates" operator="lessOrEqual" value="0.72"/>
                                            <ScoreDistribution value="5" recordCount="6.0"/>
                                            <ScoreDistribution value="6" recordCount="14.0"/>
                                            <ScoreDistribution value="7" recordCount="6.0"/>
                                        </Node>
                                        <Node score="7" recordCount="49.0">
                                            <SimplePredicate field="sulphates" operator="greaterThan" value="0.72"/>
                                            <ScoreDistribution value="5" recordCount="6.0"/>
                                            <ScoreDistribution value="6" recordCount="11.0"/>
                                            <ScoreDistribution value="7" recordCount="32.0"/>
                                        </Node>
                                    </Node>
                                    <Node score="6" recordCount="252.0">
                                        <SimplePredicate field="volatile acidity" operator="greaterThan" value="0.34"/>
                                        <ScoreDistribution value="5" recordCount="45.0"/>
                                        <ScoreDistribution value="6" recordCount="143.0"/>
                                        <ScoreDistribution value="7" recordCount="48.0"/>
                                        <ScoreDistribution value="4" recordCount="11.0"/>
                                        <ScoreDistribution value="8" recordCount="4.0"/>
                                        <ScoreDistribution value="3" recordCount="1.0"/>
                                        <Node score="5" recordCount="15.0">
                                            <SimplePredicate field="sulphates" operator="lessOrEqual" value="0.51"/>
                                            <ScoreDistribution value="5" recordCount="13.0"/>
                                            <ScoreDistribution value="6" recordCount="1.0"/>
                                            <ScoreDistribution value="7" recordCount="1.0"/>
                                        </Node>
                                        <Node score="6" recordCount="237.0">
                                            <SimplePredicate field="sulphates" operator="greaterThan" value="0.51"/>
                                            <ScoreDistribution value="5" recordCount="32.0"/>
                                            <ScoreDistribution value="6" recordCount="142.0"/>
                                            <ScoreDistribution value="7" recordCount="47.0"/>
                                            <ScoreDistribution value="4" recordCount="11.0"/>
                                            <ScoreDistribution value="8" recordCount="4.0"/>
                                            <ScoreDistribution value="3" recordCount="1.0"/>
                                        </Node>
                                    </Node>
                                </Node>
                            </Node>
                        </Node>
                        <Node score="5" recordCount="152.0">
                            <SimplePredicate field="total sulfur dioxide" operator="greaterThan" value="95"/>
                            <ScoreDistribution value="5" recordCount="127.0"/>
                            <ScoreDistribution value="6" recordCount="17.0"/>
                            <ScoreDistribution value="7" recordCount="6.0"/>
                            <ScoreDistribution value="4" recordCount="2.0"/>
                            <Node score="5" recordCount="137.0">
                                <SimplePredicate field="alcohol" operator="lessOrEqual" value="11.2"/>
                                <ScoreDistribution value="5" recordCount="126.0"/>
                                <ScoreDistribution value="6" recordCount="8.0"/>
                                <ScoreDistribution value="7" recordCount="2.0"/>
                                <ScoreDistribution value="4" recordCount="1.0"/>
                                <Node score="5" recordCount="6.0">
                                    <SimplePredicate field="pH" operator="lessOrEqual" value="3.02"/>
                                    <ScoreDistribution value="5" recordCount="3.0"/>
                                    <ScoreDistribution value="6" recordCount="3.0"/>
                                    <Node score="5" recordCount="3.0">
                                        <SimplePredicate field="alcohol" operator="lessOrEqual" value="9.8"/>
                                        <ScoreDistribution value="5" recordCount="3.0"/>
                                    </Node>
                                    <Node score="6" recordCount="3.0">
                                        <SimplePredicate field="alcohol" operator="greaterThan" value="9.8"/>
                                        <ScoreDistribution value="6" recordCount="3.0"/>
                                    </Node>
                                </Node>
                                <Node score="5" recordCount="131.0">
                                    <SimplePredicate field="pH" operator="greaterThan" value="3.02"/>
                                    <ScoreDistribution value="5" recordCount="123.0"/>
                                    <ScoreDistribution value="6" recordCount="5.0"/>
                                    <ScoreDistribution value="7" recordCount="2.0"/>
                                    <ScoreDistribution value="4" recordCount="1.0"/>
                                    <Node score="5" recordCount="6.0">
                                        <SimplePredicate field="residual sugar" operator="lessOrEqual" value="1.8"/>
                                        <ScoreDistribution value="5" recordCount="3.0"/>
                                        <ScoreDistribution value="7" recordCount="2.0"/>
                                        <ScoreDistribution value="4" recordCount="1.0"/>
                                        <Node score="5" recordCount="3.0">
                                            <SimplePredicate field="fixed acidity" operator="lessOrEqual" value="7.8"/>
                                            <ScoreDistribution value="5" recordCount="3.0"/>
                                        </Node>
                                        <Node score="7" recordCount="3.0">
                                            <SimplePredicate field="fixed acidity" operator="greaterThan" value="7.8"/>
                                            <ScoreDistribution value="7" recordCount="2.0"/>
                                            <ScoreDistribution value="4" recordCount="1.0"/>
                                        </Node>
                                    </Node>
                                    <Node score="5" recordCount="125.0">
                                        <SimplePredicate field="residual sugar" operator="greaterThan" value="1.8"/>
                                        <ScoreDistribution value="5" recordCount="120.0"/>
                                        <ScoreDistribution value="6" recordCount="5.0"/>
                                        <Node score="5" recordCount="48.0">
                                            <SimplePredicate field="free sulfur dioxide" operator="lessOrEqual" value="21"/>
                                            <ScoreDistribution value="5" recordCount="43.0"/>
                                            <ScoreDistribution value="6" recordCount="5.0"/>
                                        </Node>
                                        <Node score="5" recordCount="77.0">
                                            <SimplePredicate field="free sulfur dioxide" operator="greaterThan" value="21"/>
                                            <ScoreDistribution value="5" recordCount="77.0"/>
                                        </Node>
                                    </Node>
                                </Node>
                            </Node>
                            <Node score="6" recordCount="15.0">
                                <SimplePredicate field="alcohol" operator="greaterThan" value="11.2"/>
                                <ScoreDistribution value="5" recordCount="1.0"/>
                                <ScoreDistribution value="6" recordCount="9.0"/>
                                <ScoreDistribution value="7" recordCount="4.0"/>
                                <ScoreDistribution value="4" recordCount="1.0"/>
                                <Node score="7" recordCount="5.0">
                                    <SimplePredicate field="citric acid" operator="lessOrEqual" value="0.29"/>
                                    <ScoreDistribution value="5" recordCount="1.0"/>
                                    <ScoreDistribution value="7" recordCount="4.0"/>
                                    <Node score="5" recordCount="1.0">
                                        <SimplePredicate field="alcohol" operator="lessOrEqual" value="11.5"/>
                                        <ScoreDistribution value="5" recordCount="1.0"/>
                                    </Node>
                                    <Node score="7" recordCount="4.0">
                                        <SimplePredicate field="alcohol" operator="greaterThan" value="11.5"/>
                                        <ScoreDistribution value="7" recordCount="4.0"/>
                                    </Node>
                                </Node>
                                <Node score="6" recordCount="10.0">
                                    <SimplePredicate field="citric acid" operator="greaterThan" value="0.29"/>
                                    <ScoreDistribution value="6" recordCount="9.0"/>
                                    <ScoreDistribution value="4" recordCount="1.0"/>
                                    <Node score="6" recordCount="9.0">
                                        <SimplePredicate field="residual sugar" operator="lessOrEqual" value="3"/>
                                        <ScoreDistribution value="6" recordCount="9.0"/>
                                    </Node>
                                    <Node score="4" recordCount="1.0">
                                        <SimplePredicate field="residual sugar" operator="greaterThan" value="3"/>
                                        <ScoreDistribution value="4" recordCount="1.0"/>
                                    </Node>
                                </Node>
                            </Node>
                        </Node>
                    </Node>
                </TreeModel>
            </Segment>
            <Segment id="3">
                <True/>
                <TreeModel functionName="classification" splitCharacteristic="binarySplit">
                    <MiningSchema>
                        <MiningField name="fixed acidity"/>
                        <MiningField name="volatile acidity"/>
                        <MiningField name="citric acid"/>
                        <MiningField name="residual sugar"/>
                        <MiningField name="chlorides"/>
                        <MiningField name="free sulfur dioxide"/>
                        <MiningField name="total sulfur dioxide"/>
                        <MiningField name="density"/>
                        <MiningField name="pH"/>
                        <MiningField name="sulphates"/>
                        <MiningField name="alcohol"/>
                    </MiningSchema>
                    <Node score="5" recordCount="1568.0">
                        <True/>
                        <ScoreDistribution value="5" recordCount="668.0"/>
                        <ScoreDistribution value="6" recordCount="608.0"/>
                        <ScoreDistribution value="7" recordCount="204.0"/>
                        <ScoreDistribution value="4" recordCount="60.0"/>
                        <ScoreDistribution value="8" recordCount="16.0"/>
                        <ScoreDistribution value="3" recordCount="12.0"/>
                        <Node score="6" recordCount="430.0">
                            <SimplePredicate field="density" operator="lessOrEqual" value="0.99576"/>
                            <ScoreDistribution value="5" recordCount="110.0"/>
                            <ScoreDistribution value="6" recordCount="189.0"/>
                            <ScoreDistribution value="7" recordCount="102.0"/>
                            <ScoreDistribution value="4" recordCount="17.0"/>
                            <ScoreDistribution value="8" recordCount="10.0"/>
                            <ScoreDistribution value="3" recordCount="2.0"/>
                            <Node score="5" recordCount="87.0">
                                <SimplePredicate field="alcohol" operator="lessOrEqual" value="10.1"/>
                                <ScoreDistribution value="5" recordCount="58.0"/>
                                <ScoreDistribution value="6" recordCount="19.0"/>
                                <ScoreDistribution value="7" recordCount="2.0"/>
                                <ScoreDistribution value="4" recordCount="7.0"/>
                                <ScoreDistribution value="3" recordCount="1.0"/>
                                <Node score="5" recordCount="84.0">
                                    <SimplePredicate field="chlorides" operator="lessOrEqual" value="0.095"/>
                                    <ScoreDistribution value="5" recordCount="58.0"/>
                                    <ScoreDistribution value="6" recordCount="18.0"/>
                                    <ScoreDistribution value="7" recordCount="2.0"/>
                                    <ScoreDistribution value="4" recordCount="6.0"/>
                                    <Node score="5" recordCount="55.0">
                                        <SimplePredicate field="pH" operator="lessOrEqual" value="3.36"/>
                                        <ScoreDistribution value="5" recordCount="48.0"/>
                                        <ScoreDistribution value="6" recordCount="7.0"/>
                                        <Node score="5" recordCount="52.0">
                                            <SimplePredicate field="citric acid" operator="lessOrEqual" value="0.25"/>
                                            <ScoreDistribution value="5" recordCount="47.0"/>
                                            <ScoreDistribution value="6" recordCount="5.0"/>
                                        </Node>
                                        <Node score="6" recordCount="3.0">
                                            <SimplePredicate field="citric acid" operator="greaterThan" value="0.25"/>
                                            <ScoreDistribution value="5" recordCount="1.0"/>
                                            <ScoreDistribution value="6" recordCount="2.0"/>
                                        </Node>
                                    </Node>
                                    <Node score="6" recordCount="29.0">
                                        <SimplePredicate field="pH" operator="greaterThan" value="3.36"/>
                                        <ScoreDistribution value="5" recordCount="10.0"/>
                                        <ScoreDistribution value="6" recordCount="11.0"/>
                                        <ScoreDistribution value="7" recordCount="2.0"/>
                                        <ScoreDistribution value="4" recordCount="6.0"/>
                                        <Node score="6" recordCount="17.0">
                                            <SimplePredicate field="volatile acidity" operator="lessOrEqual" value="0.55"/>
                                            <ScoreDistribution value="5" recordCount="1.0"/>
                                            <ScoreDistribution value="6" recordCount="11.0"/>
                                            <ScoreDistribution value="7" recordCount="1.0"/>
                                            <ScoreDistribution value="4" recordCount="4.0"/>
                                        </Node>
                                        <Node score="5" recordCount="12.0">
                                            <SimplePredicate field="volatile acidity" operator="greaterThan" value="0.55"/>
                                            <ScoreDistribution value="5" recordCount="9.0"/>
                                            <ScoreDistribution value="7" recordCount="1.0"/>
                                            <ScoreDistribution value="4" recordCount="2.0"/>
                                        </Node>
                                    </Node>
                                </Node>
                                <Node score="6" recordCount="3.0">
                                    <SimplePredicate field="chlorides" operator="greaterThan" value="0.095"/>
                                    <ScoreDistribution value="6" recordCount="1.0"/>
                                    <ScoreDistribution value="4" recordCount="1.0"/>
                                    <ScoreDistribution value="3" recordCount="1.0"/>
                                    <Node score="4" recordCount="1.0">
                                        <SimplePredicate field="free sulfur dioxide" operator="lessOrEqual" value="7"/>
                                        <ScoreDistribution value="4" recordCount="1.0"/>
                                    </Node>
                                    <Node score="6" recordCount="2.0">
                                        <SimplePredicate field="free sulfur dioxide" operator="greaterThan" value="7"/>
                                        <ScoreDistribution value="6" recordCount="1.0"/>
                                        <ScoreDistribution value="3" recordCount="1.0"/>
                                        <Node score="3" recordCount="1.0">
                                            <SimplePredicate field="fixed acidity" operator="lessOrEqual" value="6.9"/>
                                            <ScoreDistribution value="3" recordCount="1.0"/>
                                        </Node>
                                        <Node score="6" recordCount="1.0">
                                            <SimplePredicate field="fixed acidity" operator="greaterThan" value="6.9"/>
                                            <ScoreDistribution value="6" recordCount="1.0"/>
                                        </Node>
                                    </Node>
                                </Node>
                            </Node>
                            <Node score="6" recordCount="343.0">
                                <SimplePredicate field="alcohol" operator="greaterThan" value="10.1"/>
                                <ScoreDistribution value="5" recordCount="52.0"/>
                                <ScoreDistribution value="6" recordCount="170.0"/>
                                <ScoreDistribution value="7" recordCount="100.0"/>
                                <ScoreDistribution value="4" recordCount="10.0"/>
                                <ScoreDistribution value="8" recordCount="10.0"/>
                                <ScoreDistribution value="3" recordCount="1.0"/>
                                <Node score="7" recordCount="154.0">
                                    <SimplePredicate field="volatile acidity" operator="lessOrEqual" value="0.42"/>
                                    <ScoreDistribution value="5" recordCount="12.0"/>
                                    <ScoreDistribution value="6" recordCount="53.0"/>
                                    <ScoreDistribution value="7" recordCount="79.0"/>
                                    <ScoreDistribution value="4" recordCount="5.0"/>
                                    <ScoreDistribution value="8" recordCount="5.0"/>
                                    <Node score="7" recordCount="144.0">
                                        <SimplePredicate field="chlorides" operator="lessOrEqual" value="0.092"/>
                                        <ScoreDistribution value="5" recordCount="12.0"/>
                                        <ScoreDistribution value="6" recordCount="45.0"/>
                                        <ScoreDistribution value="7" recordCount="79.0"/>
                                        <ScoreDistribution value="4" recordCount="3.0"/>
                                        <ScoreDistribution value="8" recordCount="5.0"/>
                                        <Node score="6" recordCount="79.0">
                                            <SimplePredicate field="sulphates" operator="lessOrEqual" value="0.72"/>
                                            <ScoreDistribution value="5" recordCount="12.0"/>
                                            <ScoreDistribution value="6" recordCount="36.0"/>
                                            <ScoreDistribution value="7" recordCount="25.0"/>
                                            <ScoreDistribution value="4" recordCount="3.0"/>
                                            <ScoreDistribution value="8" recordCount="3.0"/>
                                        </Node>
                                        <Node score="7" recordCount="65.0">
                                            <SimplePredicate field="sulphates" operator="greaterThan" value="0.72"/>
                                            <ScoreDistribution value="6" recordCount="9.0"/>
                                            <ScoreDistribution value="7" recordCount="54.0"/>
                                            <ScoreDistribution value="8" recordCount="2.0"/>
                                        </Node>
                                    </Node>
                                    <Node score="6" recordCount="10.0">
                                        <SimplePredicate field="chlorides" operator="greaterThan" value="0.092"/>
                                        <ScoreDistribution value="6" recordCount="8.0"/>
                                        <ScoreDistribution value="4" recordCount="2.0"/>
                                        <Node score="6" recordCount="5.0">
                                            <SimplePredicate field="sulphates" operator="lessOrEqual" value="0.58"/>
                                            <ScoreDistribution value="6" recordCount="3.0"/>
                                            <ScoreDistribution value="4" recordCount="2.0"/>
                                        </Node>
                                        <Node score="6" recordCount="5.0">
                                            <SimplePredicate field="sulphates" operator="greaterThan" value="0.58"/>
                                            <ScoreDistribution value="6" recordCount="5.0"/>
                                        </Node>
                                    </Node>
                                </Node>
                                <Node score="6" recordCount="189.0">
                                    <SimplePredicate field="volatile acidity" operator="greaterThan" value="0.42"/>
                                    <ScoreDistribution value="5" recordCount="40.0"/>
                                    <ScoreDistribution value="6" recordCount="117.0"/>
                                    <ScoreDistribution value="7" recordCount="21.0"/>
                                    <ScoreDistribution value="4" recordCount="5.0"/>
                                    <ScoreDistribution value="8" recordCount="5.0"/>
                                    <ScoreDistribution value="3" recordCount="1.0"/>
                                    <Node score="5" recordCount="61.0">
                                        <SimplePredicate field="fixed acidity" operator="lessOrEqual" value="6.2"/>
                                        <ScoreDistribution value="5" recordCount="24.0"/>
                                        <ScoreDistribution value="6" recordCount="24.0"/>
                                        <ScoreDistribution value="7" recordCount="10.0"/>
                                        <ScoreDistribution value="4" recordCount="2.0"/>
                                        <ScoreDistribution value="8" recordCount="1.0"/>
                                        <Node score="5" recordCount="35.0">
                                            <SimplePredicate field="alcohol" operator="lessOrEqual" value="12"/>
                                            <ScoreDistribution value="5" recordCount="20.0"/>
                                            <ScoreDistribution value="6" recordCount="14.0"/>
                                            <ScoreDistribution value="4" recordCount="1.0"/>
                                        </Node>
                                        <Node score="6" recordCount="26.0">
                                            <SimplePredicate field="alcohol" operator="greaterThan" value="12"/>
                                            <ScoreDistribution value="5" recordCount="4.0"/>
                                            <ScoreDistribution value="6" recordCount="10.0"/>
                                            <ScoreDistribution value="7" recordCount="10.0"/>
                                            <ScoreDistribution value="4" recordCount="1.0"/>
                                            <ScoreDistribution value="8" recordCount="1.0"/>
                                        </Node>
                                    </Node>
                                    <Node score="6" recordCount="128.0">
                                        <SimplePredicate field="fixed acidity" operator="greaterThan" value="6.2"/>
                                        <ScoreDistribution value="5" recordCount="16.0"/>
                                        <ScoreDistribution value="6" recordCount="93.0"/>
                                        <ScoreDistribution value="7" recordCount="11.0"/>
                                        <ScoreDistribution value="4" recordCount="3.0"/>
                                        <ScoreDistribution value="8" recordCount="4.0"/>
                                        <ScoreDistribution value="3" recordCount="1.0"/>
                                        <Node score="6" recordCount="96.0">
                                            <SimplePredicate field="volatile acidity" operator="lessOrEqual" value="0.67"/>
                                            <ScoreDistribution value="5" recordCount="6.0"/>
                                            <ScoreDistribution value="6" recordCount="77.0"/>
                                            <ScoreDistribution value="7" recordCount="8.0"/>
                                            <ScoreDistribution value="4" recordCount="1.0"/>
                                            <ScoreDistribution value="8" recordCount="4.0"/>
                                        </Node>
                                        <Node score="6" recordCount="32.0">
                                            <SimplePredicate field="volatile acidity" operator="greaterThan" value="0.67"/>
                                            <ScoreDistribution value="5" recordCount="10.0"/>
                                            <ScoreDistribution value="6" recordCount="16.0"/>
                                            <ScoreDistribution value="7" recordCount="3.0"/>
                                            <ScoreDistribution value="4" recordCount="2.0"/>
                                            <ScoreDistribution value="3" recordCount="1.0"/>
                                        </Node>
                                    </Node>
                                </Node>
                            </Node>
                        </Node>
                        <Node score="5" recordCount="1138.0">
                            <SimplePredicate field="density" operator="greaterThan" value="0.99576"/>
                            <ScoreDistribution value="5" recordCount="558.0"/>
                            <ScoreDistribution value="6" recordCount="419.0"/>
                            <ScoreDistribution value="7" recordCount="102.0"/>
                            <ScoreDistribution value="4" recordCount="43.0"/>
                            <ScoreDistribution value="8" recordCount="6.0"/>
                            <ScoreDistribution value="3" recordCount="10.0"/>
                            <Node score="5" recordCount="584.0">
                                <SimplePredicate field="alcohol" operator="lessOrEqual" value="9.8"/>
                                <ScoreDistribution value="5" recordCount="379.0"/>
                                <ScoreDistribution value="6" recordCount="165.0"/>
                                <ScoreDistribution value="7" recordCount="8.0"/>
                                <ScoreDistribution value="4" recordCount="29.0"/>
                                <ScoreDistribution value="8" recordCount="1.0"/>
                                <ScoreDistribution value="3" recordCount="2.0"/>
                                <Node score="6" recordCount="76.0">
                                    <SimplePredicate field="volatile acidity" operator="lessOrEqual" value="0.37"/>
                                    <ScoreDistribution value="5" recordCount="34.0"/>
                                    <ScoreDistribution value="6" recordCount="39.0"/>
                                    <ScoreDistribution value="7" recordCount="1.0"/>
                                    <ScoreDistribution value="4" recordCount="1.0"/>
                                    <ScoreDistribution value="8" recordCount="1.0"/>
                                    <Node score="6" recordCount="20.0">
                                        <SimplePredicate field="alcohol" operator="lessOrEqual" value="9.2"/>
                                        <ScoreDistribution value="5" recordCount="3.0"/>
                                        <ScoreDistribution value="6" recordCount="16.0"/>
                                        <ScoreDistribution value="7" recordCount="1.0"/>
                                        <Node score="6" recordCount="19.0">
                                            <SimplePredicate field="density" operator="lessOrEqual" value="1.00025"/>
                                            <ScoreDistribution value="5" recordCount="2.0"/>
                                            <ScoreDistribution value="6" recordCount="16.0"/>
                                            <ScoreDistribution value="7" recordCount="1.0"/>
                                        </Node>
                                        <Node score="5" recordCount="1.0">
                                            <SimplePredicate field="density" operator="greaterThan" value="1.00025"/>
                                            <ScoreDistribution value="5" recordCount="1.0"/>
                                        </Node>
                                    </Node>
                                    <Node score="5" recordCount="56.0">
                                        <SimplePredicate field="alcohol" operator="greaterThan" value="9.2"/>
                                        <ScoreDistribution value="5" recordCount="31.0"/>
                                        <ScoreDistribution value="6" recordCount="23.0"/>
                                        <ScoreDistribution value="4" recordCount="1.0"/>
                                        <ScoreDistribution value="8" recordCount="1.0"/>
                                        <Node score="5" recordCount="39.0">
                                            <SimplePredicate field="pH" operator="lessOrEqual" value="3.3"/>
                                            <ScoreDistribution value="5" recordCount="27.0"/>
                                            <ScoreDistribution value="6" recordCount="10.0"/>
                                            <ScoreDistribution value="4" recordCount="1.0"/>
                                            <ScoreDistribution value="8" recordCount="1.0"/>
                                        </Node>
                                        <Node score="6" recordCount="17.0">
                                            <SimplePredicate field="pH" operator="greaterThan" value="3.3"/>
                                            <ScoreDistribution value="5" recordCount="4.0"/>
                                            <ScoreDistribution value="6" recordCount="13.0"/>
                                        </Node>
                                    </Node>
                                </Node>
                                <Node score="5" recordCount="508.0">
                                    <SimplePredicate field="volatile acidity" operator="greaterThan" value="0.37"/>
                                    <ScoreDistribution value="5" recordCount="345.0"/>
                                    <ScoreDistribution value="6" recordCount="126.0"/>
                                    <ScoreDistribution value="7" recordCount="7.0"/>
                                    <ScoreDistribution value="4" recordCount="28.0"/>
                                    <ScoreDistribution value="3" recordCount="2.0"/>
                                    <Node score="5" recordCount="446.0">
                                        <SimplePredicate field="total sulfur dioxide" operator="lessOrEqual" value="106"/>
                                        <ScoreDistribution value="5" recordCount="285.0"/>
                                        <ScoreDistribution value="6" recordCount="124.0"/>
                                        <ScoreDistribution value="7" recordCount="7.0"/>
                                        <ScoreDistribution value="4" recordCount="28.0"/>
                                        <ScoreDistribution value="3" recordCount="2.0"/>
                                        <Node score="5" recordCount="67.0">
                                            <SimplePredicate field="free sulfur dioxide" operator="lessOrEqual" value="6"/>
                                            <ScoreDistribution value="5" recordCount="30.0"/>
                                            <ScoreDistribution value="6" recordCount="28.0"/>
                                            <ScoreDistribution value="4" recordCount="9.0"/>
                                        </Node>
                                        <Node score="5" recordCount="379.0">
                                            <SimplePredicate field="free sulfur dioxide" operator="greaterThan" value="6"/>
                                            <ScoreDistribution value="5" recordCount="255.0"/>
                                            <ScoreDistribution value="6" recordCount="96.0"/>
                                            <ScoreDistribution value="7" recordCount="7.0"/>
                                            <ScoreDistribution value="4" recordCount="19.0"/>
                                            <ScoreDistribution value="3" recordCount="2.0"/>
                                        </Node>
                                    </Node>
                                    <Node score="5" recordCount="62.0">
                                        <SimplePredicate field="total sulfur dioxide" operator="greaterThan" value="106"/>
                                        <ScoreDistribution value="5" recordCount="60.0"/>
                                        <ScoreDistribution value="6" recordCount="2.0"/>
                                        <Node score="6" recordCount="2.0">
                                            <SimplePredicate field="chlorides" operator="lessOrEqual" value="0.066"/>
                                            <ScoreDistribution value="6" recordCount="2.0"/>
                                        </Node>
                                        <Node score="5" recordCount="60.0">
                                            <SimplePredicate field="chlorides" operator="greaterThan" value="0.066"/>
                                            <ScoreDistribution value="5" recordCount="60.0"/>
                                        </Node>
                                    </Node>
                                </Node>
                            </Node>
                            <Node score="6" recordCount="554.0">
                                <SimplePredicate field="alcohol" operator="greaterThan" value="9.8"/>
                                <ScoreDistribution value="5" recordCount="179.0"/>
                                <ScoreDistribution value="6" recordCount="254.0"/>
                                <ScoreDistribution value="7" recordCount="94.0"/>
                                <ScoreDistribution value="4" recordCount="14.0"/>
                                <ScoreDistribution value="8" recordCount="5.0"/>
                                <ScoreDistribution value="3" recordCount="8.0"/>
                                <Node score="5" recordCount="232.0">
                                    <SimplePredicate field="sulphates" operator="lessOrEqual" value="0.63"/>
                                    <ScoreDistribution value="5" recordCount="108.0"/>
                                    <ScoreDistribution value="6" recordCount="99.0"/>
                                    <ScoreDistribution value="7" recordCount="7.0"/>
                                    <ScoreDistribution value="4" recordCount="12.0"/>
                                    <ScoreDistribution value="3" recordCount="6.0"/>
                                    <Node score="6" recordCount="196.0">
                                        <SimplePredicate field="fixed acidity" operator="lessOrEqual" value="10"/>
                                        <ScoreDistribution value="5" recordCount="80.0"/>
                                        <ScoreDistribution value="6" recordCount="91.0"/>
                                        <ScoreDistribution value="7" recordCount="7.0"/>
                                        <ScoreDistribution value="4" recordCount="12.0"/>
                                        <ScoreDistribution value="3" recordCount="6.0"/>
                                        <Node score="6" recordCount="101.0">
                                            <SimplePredicate field="volatile acidity" operator="lessOrEqual" value="0.58"/>
                                            <ScoreDistribution value="5" recordCount="30.0"/>
                                            <ScoreDistribution value="6" recordCount="62.0"/>
                                            <ScoreDistribution value="7" recordCount="5.0"/>
                                            <ScoreDistribution value="4" recordCount="4.0"/>
                                        </Node>
                                        <Node score="5" recordCount="95.0">
                                            <SimplePredicate field="volatile acidity" operator="greaterThan" value="0.58"/>
                                            <ScoreDistribution value="5" recordCount="50.0"/>
                                            <ScoreDistribution value="6" recordCount="29.0"/>
                                            <ScoreDistribution value="7" recordCount="2.0"/>
                                            <ScoreDistribution value="4" recordCount="8.0"/>
                                            <ScoreDistribution value="3" recordCount="6.0"/>
                                        </Node>
                                    </Node>
                                    <Node score="5" recordCount="36.0">
                                        <SimplePredicate field="fixed acidity" operator="greaterThan" value="10"/>
                                        <ScoreDistribution value="5" recordCount="28.0"/>
                                        <ScoreDistribution value="6" recordCount="8.0"/>
                                        <Node score="6" recordCount="2.0">
                                            <SimplePredicate field="density" operator="lessOrEqual" value="0.99646"/>
                                            <ScoreDistribution value="6" recordCount="2.0"/>
                                        </Node>
                                        <Node score="5" recordCount="34.0">
                                            <SimplePredicate field="density" operator="greaterThan" value="0.99646"/>
                                            <ScoreDistribution value="5" recordCount="28.0"/>
                                            <ScoreDistribution value="6" recordCount="6.0"/>
                                        </Node>
                                    </Node>
                                </Node>
                                <Node score="6" recordCount="322.0">
                                    <SimplePredicate field="sulphates" operator="greaterThan" value="0.63"/>
                                    <ScoreDistribution value="5" recordCount="71.0"/>
                                    <ScoreDistribution value="6" recordCount="155.0"/>
                                    <ScoreDistribution value="7" recordCount="87.0"/>
                                    <ScoreDistribution value="4" recordCount="2.0"/>
                                    <ScoreDistribution value="8" recordCount="5.0"/>
                                    <ScoreDistribution value="3" recordCount="2.0"/>
                                    <Node score="6" recordCount="149.0">
                                        <SimplePredicate field="alcohol" operator="lessOrEqual" value="10.5"/>
                                        <ScoreDistribution value="5" recordCount="54.0"/>
                                        <ScoreDistribution value="6" recordCount="72.0"/>
                                        <ScoreDistribution value="7" recordCount="18.0"/>
                                        <ScoreDistribution value="8" recordCount="3.0"/>
                                        <ScoreDistribution value="3" recordCount="2.0"/>
                                        <Node score="6" recordCount="133.0">
                                            <SimplePredicate field="residual sugar" operator="lessOrEqual" value="4.4"/>
                                            <ScoreDistribution value="5" recordCount="39.0"/>
                                            <ScoreDistribution value="6" recordCount="72.0"/>
                                            <ScoreDistribution value="7" recordCount="17.0"/>
                                            <ScoreDistribution value="8" recordCount="3.0"/>
                                            <ScoreDistribution value="3" recordCount="2.0"/>
                                        </Node>
                                        <Node score="5" recordCount="16.0">
                                            <SimplePredicate field="residual sugar" operator="greaterThan" value="4.4"/>
                                            <ScoreDistribution value="5" recordCount="15.0"/>
                                            <ScoreDistribution value="7" recordCount="1.0"/>
                                        </Node>
                                    </Node>
                                    <Node score="6" recordCount="173.0">
                                        <SimplePredicate field="alcohol" operator="greaterThan" value="10.5"/>
                                        <ScoreDistribution value="5" recordCount="17.0"/>
                                        <ScoreDistribution value="6" recordCount="83.0"/>
                                        <ScoreDistribution value="7" recordCount="69.0"/>
                                        <ScoreDistribution value="4" recordCount="2.0"/>
                                        <ScoreDistribution value="8" recordCount="2.0"/>
                                        <Node score="6" recordCount="169.0">
                                            <SimplePredicate field="total sulfur dioxide" operator="lessOrEqual" value="87"/>
                                            <ScoreDistribution value="5" recordCount="13.0"/>
                                            <ScoreDistribution value="6" recordCount="83.0"/>
                                            <ScoreDistribution value="7" recordCount="69.0"/>
                                            <ScoreDistribution value="4" recordCount="2.0"/>
                                            <ScoreDistribution value="8" recordCount="2.0"/>
                                        </Node>
                                        <Node score="5" recordCount="4.0">
                                            <SimplePredicate field="total sulfur dioxide" operator="greaterThan" value="87"/>
                                            <ScoreDistribution value="5" recordCount="4.0"/>
                                        </Node>
                                    </Node>
                                </Node>
                            </Node>
                        </Node>
                    </Node>
                </TreeModel>
            </Segment>
            <Segment id="4">
                <True/>
                <TreeModel functionName="classification" splitCharacteristic="binarySplit">
                    <MiningSchema>
                        <MiningField name="fixed acidity"/>
                        <MiningField name="volatile acidity"/>
                        <MiningField name="citric acid"/>
                        <MiningField name="residual sugar"/>
                        <MiningField name="chlorides"/>
                        <MiningField name="free sulfur dioxide"/>
                        <MiningField name="total sulfur dioxide"/>
                        <MiningField name="density"/>
                        <MiningField name="pH"/>
                        <MiningField name="sulphates"/>
                        <MiningField name="alcohol"/>
                    </MiningSchema>
                    <Node score="6" recordCount="1528.0">
                        <True/>
                        <ScoreDistribution value="5" recordCount="602.0"/>
                        <ScoreDistribution value="6" recordCount="651.0"/>
                        <ScoreDistribution value="7" recordCount="194.0"/>
                        <ScoreDistribution value="4" recordCount="50.0"/>
                        <ScoreDistribution value="8" recordCount="16.0"/>
                        <ScoreDistribution value="3" recordCount="15.0"/>
                        <Node score="6" recordCount="328.0">
                            <SimplePredicate field="density" operator="lessOrEqual" value="0.99545"/>
                            <ScoreDistribution value="5" recordCount="51.0"/>
                            <ScoreDistribution value="6" recordCount="156.0"/>
                            <ScoreDistribution value="7" recordCount="95.0"/>
                            <ScoreDistribution value="4" recordCount="14.0"/>
                            <ScoreDistribution value="8" recordCount="12.0"/>
                            <Node score="6" recordCount="195.0">
                                <SimplePredicate field="sulphates" operator="lessOrEqual" value="0.67"/>
                                <ScoreDistribution value="5" recordCount="43.0"/>
                                <ScoreDistribution value="6" recordCount="114.0"/>
                                <ScoreDistribution value="7" recordCount="23.0"/>
                                <ScoreDistribution value="4" recordCount="14.0"/>
                                <ScoreDistribution value="8" recordCount="1.0"/>
                                <Node score="6" recordCount="44.0">
                                    <SimplePredicate field="pH" operator="lessOrEqual" value="3.28"/>
                                    <ScoreDistribution value="5" recordCount="11.0"/>
                                    <ScoreDistribution value="6" recordCount="17.0"/>
                                    <ScoreDistribution value="7" recordCount="15.0"/>
                                    <ScoreDistribution value="8" recordCount="1.0"/>
                                    <Node score="6" recordCount="36.0">
                                        <SimplePredicate field="volatile acidity" operator="lessOrEqual" value="0.58"/>
                                        <ScoreDistribution value="5" recordCount="3.0"/>
                                        <ScoreDistribution value="6" recordCount="17.0"/>
                                        <ScoreDistribution value="7" recordCount="15.0"/>
                                        <ScoreDistribution value="8" recordCount="1.0"/>
                                        <Node score="6" recordCount="6.0">
                                            <SimplePredicate field="citric acid" operator="lessOrEqual" value="0.21"/>
                                            <ScoreDistribution value="5" recordCount="2.0"/>
                                            <ScoreDistribution value="6" recordCount="4.0"/>
                                        </Node>
                                        <Node score="7" recordCount="30.0">
                                            <SimplePredicate field="citric acid" operator="greaterThan" value="0.21"/>
                                            <ScoreDistribution value="5" recordCount="1.0"/>
                                            <ScoreDistribution value="6" recordCount="13.0"/>
                                            <ScoreDistribution value="7" recordCount="15.0"/>
                                            <ScoreDistribution value="8" recordCount="1.0"/>
                                        </Node>
                                    </Node>
